{
  "input_nodes": 5,
  "hidden_nodes": 8,
  "output_nodes": 2,
  "weights_ih": {
    "rows": 8,
    "cols": 5,
    "data": [
      [
        0.4274128699248557,
        0.4064169800634625,
        0.039708489210129885,
        -0.884451648120933,
        0.819816780920442
      ],
      [
        0.9603676457023789,
        -0.9093562664727808,
        1.2197177212673729,
        -0.01884483357464317,
        0.22832322148379114
      ],
      [
        -0.9523156837489662,
        -0.0634636151335688,
        0.9816234183490953,
        -0.37242993385756096,
        -0.49008186621796646
      ],
      [
        -0.037229321568647666,
        0.0939020240063446,
        -0.9692397742410979,
        0.11218608487532689,
        -0.47651622928177684
      ],
      [
        -0.5661684655294061,
        0.020533600885320746,
        0.4684039126030879,
        0.30823529660980514,
        -0.48578918819483974
      ],
      [
        0.1219651423780877,
        0.8263712161156841,
        -0.3476278003820371,
        0.171342586901164,
        0.28467386727461985
      ],
      [
        0.6774512292043335,
        0.009491661651615507,
        -0.9268076547151343,
        -0.7658621762398325,
        0.7749053218872554
      ],
      [
        0.01704957872628403,
        -0.3873170025513062,
        0.6978935860317317,
        0.5922940127069718,
        -0.9093878944306657
      ]
    ]
  },
  "weights_ho": {
    "rows": 2,
    "cols": 8,
    "data": [
      [
        -0.7950743819370596,
        0.9156043684702719,
        -0.5732908900527325,
        0.7070700533183987,
        -0.8915111594337357,
        0.34970829828620453,
        0.12999366250929434,
        -0.6136844586935867
      ],
      [
        -0.024337582781638264,
        -0.8070797339079268,
        0.5510268932175072,
        0.8911233276159101,
        -0.4076473668731979,
        0.3463942259192632,
        -0.22473996561986032,
        -0.7273766741235048
      ]
    ]
  },
  "bias_h": {
    "rows": 8,
    "cols": 1,
    "data": [
      [
        0.89232614518758
      ],
      [
        -0.5898033486366281
      ],
      [
        0.5441984661053147
      ],
      [
        -0.9444346787667766
      ],
      [
        0.08962909763795035
      ],
      [
        0.7116142384504367
      ],
      [
        0.8998051909520599
      ],
      [
        0.7938504202957111
      ]
    ]
  },
  "bias_o": {
    "rows": 2,
    "cols": 1,
    "data": [
      [
        -0.1774921387425976
      ],
      [
        -0.3439943960353173
      ]
    ]
  },
  "learning_rate": 0.1,
  "activation_function": {}
}
